digraph Tree {
node [shape=box] ;
0 [label="X[2] <= 2.45\ngini = 0.667\nsamples = 149\nvalue = [49, 50, 50]"] ;
1 [label="gini = 0.0\nsamples = 49\nvalue = [49, 0, 0]"] ;
0 -> 1 [labeldistance=2.5, labelangle=45, headlabel="True"] ;
2 [label="X[2] <= 4.75\ngini = 0.5\nsamples = 100\nvalue = [0, 50, 50]"] ;
0 -> 2 [labeldistance=2.5, labelangle=-45, headlabel="False"] ;
3 [label="X[3] <= 1.65\ngini = 0.043\nsamples = 45\nvalue = [0, 44, 1]"] ;
2 -> 3 ;
4 [label="gini = 0.0\nsamples = 44\nvalue = [0, 44, 0]"] ;
3 -> 4 ;
5 [label="gini = 0.0\nsamples = 1\nvalue = [0, 0, 1]"] ;
3 -> 5 ;
6 [label="X[2] <= 5.05\ngini = 0.194\nsamples = 55\nvalue = [0, 6, 49]"] ;
2 -> 6 ;
7 [label="gini = 0.473\nsamples = 13\nvalue = [0, 5, 8]"] ;
6 -> 7 ;
8 [label="gini = 0.046\nsamples = 42\nvalue = [0, 1, 41]"] ;
6 -> 8 ;
}